0.679861 -3.006587 -22.990279 8.431586 2.287819 -25.686956 -5.116456 -3.310233 -3.915060 -2.722336
-7.200191 -7.539437 5.006254 -3.126650 -0.378030 3.077514 0.485766 12.772490 -1.934473 -4.238863
-0.189727 -4.126216 6.622465 2.879921 -0.468479 -2.246401 8.445092 -2.722457 -4.052647 -2.609257
-1.226116 -2.911328 5.068879 6.120919 12.419035 6.896034 3.833519 5.203499 1.206389 -0.836578
0.783404 -2.553298 6.240398 1.218864 3.633940 0.756738 4.340329 3.366666 -4.082276 -0.341160
-5.419769 0.466247 7.996580 -1.611770 9.040549 6.186805 2.838933 -10.897144 -5.988111 -0.521409
0.247932 0.427899 1.864711 1.438765 0.207121 0.594869 6.756881 3.304326 -0.024393 1.440460
-2.798323 -4.086969 4.259195 5.197441 0.197247 -10.615516 7.391279 0.868552 -2.393652 -0.797965
-5.324364 1.005937 2.384226 -8.896764 2.649435 0.269407 4.517837 2.697917 -5.026475 1.881795
-5.037645 -0.547036 -15.508629 -12.299400 8.975644 2.589702 3.556567 2.311071 -0.874828 -3.165555
-6.472749 -6.798151 3.957210 -2.393222 10.324857 0.198653 0.782250 -3.679499 -11.776602 2.904383
3.633135 0.275193 -6.091695 3.841457 -3.636025 -4.250285 -2.970190 1.529502 6.605649 -3.013307
0.875440 1.101785 1.354275 0.512847 0.273569 0.427750 10.666283 3.824036 0.050579 0.721311
-1.539846 0.571792 5.000960 0.276557 8.078778 8.770145 5.996146 0.206827 -2.091742 -2.570866
0.968894 0.257318 1.177089 0.335838 0.928105 -1.943391 1.822402 1.017695 0.112894 0.319793
-4.505870 -5.469553 8.217519 -0.457834 4.073192 6.812995 2.433803 -9.442583 -2.185687 7.756090
6.571205 -42.523212 -48.270111 -133.865480 3.995855 54.761809 -113.891943 -55.098538 -145.978658 -12.403386
28.130712 45.845124 16.986086 40.650034 2.650055 -12.055912 30.544481 36.361415 41.461295 8.015784
26.314639 8.564432 -17.226001 27.200417 47.213756 1.628921 32.762357 42.275756 -15.612648 4.571967
-19.027842 -6.712461 10.398249 -29.477331 -4.767509 8.810901 8.320250 -19.483331 -29.957511 1.593978
41.413315 23.946491 -24.336515 60.235453 46.330420 -9.656003 27.822682 53.217974 14.089650 6.429069
