4.933791 -4.400249 1.804606
1.045000 -1.240334 1.337801
-1.282758 -4.008403 7.185951
-0.541556 1.069590 1.214515
0.509063 -2.791942 4.543673
-1.211711 3.663730 -1.161120
0.203089 1.284976 0.257927
4.212369 -3.234342 0.518214
0.864965 -0.672772 1.612347
0.369631 -1.366780 2.387064
0.827212 0.812962 -0.046280
1.057654 -0.221745 0.994964
0.484092 -0.580738 1.212355
-0.389512 0.697532 1.310608
1.417052 0.775146 -0.436798
-0.066812 -1.276449 2.897745
0.674770 -1.056934 0.861469
0.831922 -2.648719 3.502457
0.446560 -0.585733 1.435919
5.246221 1.423604 -5.628386
0.422414 -1.449176 2.463639
-0.363503 0.268472 2.219503
0.122266 -0.478530 2.015731
0.220580 -2.939551 3.157727
8.241623 5.336828 -12.071332
-1.537185 -2.591039 5.636408
0.124635 -0.253560 0.993889
0.216246 -2.465988 4.349834
-11.646474 0.285423 12.956922
1.914431 -1.293912 1.217735
-0.118287 -1.305502 2.719151
-0.152591 0.388533 0.806642
0.791819 -3.289306 4.342685
0.598346 -1.382195 1.994102
4.695278 -4.399644 1.442285
4.016068 -2.604096 1.054006
0.794360 -1.379681 2.569248
0.258848 -0.254831 1.527929
2.957660 0.830693 -2.206638
1.393784 -1.371829 1.682027
-22.515896 12.947155 11.332593
-0.979974 -2.980159 5.392427
5.156797 6.059717 -8.996359
0.769791 -0.934405 2.185719
-0.005997 -0.124200 1.932669
0.708124 -0.732588 2.020146
1.484283 -0.412590 0.410839
-0.031093 -1.066401 1.794299
1.104295 -2.258740 2.634642
0.053162 -0.323934 1.330261
-2.813625 -5.688144 9.405683
3.893106 5.576566 -7.718474
5.623208 5.297626 -9.158632
2.019579 -3.148822 1.975315
1.102043 -1.925774 2.182923
0.617225 -0.652775 1.941942
1.472240 -0.967472 1.981865
-0.462022 -0.155843 0.839438
0.386682 -0.394803 1.797108
0.213745 -0.527927 2.235920
