-6.366654 -0.016483 5.562064 -0.248422 -2.869009 -1.831059 -0.779745 -1.800322 -1.317884 -0.771619 -0.976002 -0.466034 -0.620219 -0.770137 -2.050061 -2.898450 -0.895713 -1.613490 -0.790357 -1.405371 0.080930 -1.357636 -0.796863 -0.182398 0.171717 -4.158727 -1.010491 -3.326095 -5.581527 -1.552045 -0.882649 -1.028852 -5.927915 -0.602347 0.138400 -1.061382 -2.804386 -0.839803 0.121203 -0.728133 0.088504 -1.148054 -4.819889 -0.645539 -0.555432 -0.253026 -0.887992 -1.358452 -0.574140 -0.972383 3.559511 -3.294263 -8.107328 -1.843105 -0.908226 -0.428932 -1.019334 -0.848165 -1.647245 -0.213412
-3.578450 -0.630215 2.135759 -0.080535 -2.892754 2.666345 0.036117 0.749521 -0.783263 0.726884 0.328801 -0.397688 -0.614819 0.079054 0.542447 0.480398 -0.026771 -0.706188 -0.362847 -0.463372 -0.901237 -0.430707 -0.703001 -0.849278 -0.203519 -0.427156 -0.199638 1.706196 0.053337 -0.535452 -1.767341 0.050911 3.526779 -0.259968 -0.388231 -0.812029 -0.098686 -0.625362 -0.670683 -0.658997 -0.107277 0.360802 -4.750960 -0.960762 -0.005554 -1.012342 -0.156418 0.130505 -0.924275 -0.587475 -0.735990 -0.538964 1.966709 1.157255 -1.481721 0.113120 -0.050918 -0.489645 0.035561 -0.325932
3.962271 1.739694 -1.924115 0.420286 2.941030 -0.143580 0.611997 2.902762 0.207833 0.513932 0.292477 0.412673 0.334709 0.429454 0.719186 0.395099 0.841326 1.431298 0.756829 -3.980502 1.703908 0.612156 0.995407 0.716972 -12.359893 -0.202656 0.759871 0.496645 -3.759657 0.920085 3.559979 0.314774 -0.083583 0.868133 3.471544 1.638946 1.316043 1.481603 -1.716960 1.669048 0.891761 0.227609 4.101811 1.481950 0.210594 1.926746 0.575002 0.344264 0.190549 0.976197 -0.289041 -7.296439 -4.218247 1.118750 2.107034 0.371784 1.262659 0.680914 1.268944 0.534757
-0.897287 0.058335 3.126974 0.879975 -0.089461 -0.157842 0.698204 0.420114 -0.143027 0.384783 -0.035035 0.458189 0.295327 0.657842 0.298549 -0.154315 0.519937 -0.749045 0.302670 -0.356081 1.008775 -0.115970 0.038860 1.273636 -1.860621 -0.532911 -0.060746 0.914545 -0.932152 -0.680324 0.155967 0.567597 -0.067106 0.004507 1.972151 -0.591083 -0.344495 0.425566 0.831539 -0.066545 1.718713 1.854855 0.902326 -0.192098 0.503639 0.123511 0.558137 -0.140775 0.162871 0.237806 2.744437 2.174846 1.913301 0.036398 -0.263151 0.835856 -0.267085 -0.107674 0.339703 0.533333
1.136043 0.660446 2.435428 0.401298 0.922232 0.595492 0.337777 0.574519 0.970698 1.298533 0.193837 0.297017 0.796337 0.348880 0.003320 0.777701 0.810181 -0.112264 0.625349 -0.158537 0.699797 1.059903 0.238741 1.281574 1.001782 0.679912 0.675837 1.663327 -0.574369 0.116177 1.137746 0.821808 1.741129 0.995374 -0.063074 0.109154 0.861603 0.659432 0.389995 0.548357 1.578055 1.929929 3.361251 0.064377 0.682298 0.053214 0.332764 0.485913 0.430349 0.549938 1.924930 -2.170931 -1.199805 0.201684 0.151523 0.391310 0.806998 0.206650 0.677548 0.201191
-2.340031 0.310296 2.203827 0.501326 2.195200 0.984799 0.217024 -0.318339 1.141245 0.222606 0.001810 -0.154717 -0.078596 0.761570 0.421528 2.467627 0.422156 0.568623 -0.198556 0.392450 0.092545 0.909578 0.773555 1.068331 -0.952662 2.153970 0.425067 3.261587 -0.186282 0.200942 1.064085 0.450558 1.315361 0.167965 -0.162111 -1.390473 2.506626 0.191171 -0.736787 0.037631 0.502881 0.941107 -3.328508 0.306880 0.117298 1.157998 0.379339 -0.151558 1.360888 0.573323 -0.486507 2.050930 5.140036 0.067709 -1.163837 0.428022 -0.234189 0.586909 1.401820 0.651265
0.496279 0.688603 0.557863 0.562073 1.160141 0.343452 0.935571 1.009897 0.227940 0.125061 0.093823 0.038155 0.124882 0.701750 0.045859 0.375553 0.898231 0.172823 0.880170 0.124111 0.195467 0.763794 0.690329 1.087039 0.129889 1.026212 0.296167 0.278206 1.137637 0.862007 1.120244 0.433409 0.466568 0.886940 0.427967 1.082717 0.945995 0.470387 0.647164 0.834925 0.361379 1.102984 0.211915 0.936341 0.385560 0.978004 0.403303 0.052432 1.096696 0.114526 0.768521 0.584400 0.679626 0.680190 0.740241 0.498437 0.347184 0.352831 0.700498 0.841759
3.013317 1.032997 1.124145 0.905327 -0.823961 0.346334 0.246912 1.818132 0.655915 0.327623 -0.121621 0.887627 0.998295 0.280220 -0.603829 1.758096 0.183888 5.341261 1.149124 -4.531369 0.163916 2.521102 0.640758 -0.122124 3.465675 6.918802 1.303148 1.032417 12.385211 -0.030094 1.606918 0.815549 1.699071 2.013389 0.965827 1.913032 0.453207 0.768849 -2.482371 0.420254 -3.740581 -0.077963 2.902930 1.204835 1.784916 0.764532 -0.126789 1.999659 0.300028 1.523410 -1.225992 -8.775715 -7.172076 2.006206 1.057886 1.801346 0.349913 0.974319 1.519378 0.823854
-0.024695 0.531273 2.406846 0.490169 0.908864 0.385435 0.024515 0.066751 0.779258 1.202612 0.356168 0.563770 0.183966 0.139653 0.215367 0.318625 0.355789 -0.920421 0.911617 0.551379 0.218887 0.429940 0.223639 0.248439 1.028385 -0.005511 0.796836 1.281567 1.378944 0.150912 0.705855 0.361840 1.214801 0.816644 0.360428 -0.434511 0.053306 0.697622 0.981517 -0.157375 -0.152202 1.418982 -2.033989 0.458645 0.750418 0.335713 0.309622 0.041760 -0.304501 0.694112 -2.641819 1.051385 -1.197339 0.338950 0.772279 0.660882 0.618243 0.158340 0.380490 0.054562
3.286757 -0.023857 1.894853 0.236585 1.163582 0.856128 -0.152195 2.554841 -0.337518 0.373753 0.152483 0.343221 -0.071805 -0.138147 1.146110 -1.803632 -0.667455 -2.159930 0.184586 3.352294 -0.324393 -0.770315 -0.536726 -0.780988 -7.101854 -2.821317 -0.311918 -2.224012 1.293604 -0.520211 0.342178 -0.064953 -2.816829 -0.102593 1.355144 0.727266 -1.728793 0.144486 0.306779 -0.463861 0.683641 1.006369 5.011373 -0.314201 -0.140244 -0.296726 -0.408892 -0.849366 -1.650755 -0.481069 2.983531 2.898259 -1.331576 -0.780974 1.097869 -0.425617 -0.077925 -0.246063 -0.907445 -0.599741
0.127311 -0.345483 1.010109 0.026958 0.762557 -0.971955 -0.016836 0.577292 0.424254 2.228631 -0.226549 0.141481 0.393066 0.013470 0.274112 0.286961 -0.008236 -1.581506 0.281133 0.237640 -0.324238 -0.046078 0.204188 0.442355 0.406335 -0.419623 0.185475 2.675797 -0.113914 -0.402119 0.985831 0.654226 1.127384 0.874516 -0.225078 -0.627985 0.140627 -0.000245 0.173188 -0.376334 1.307425 3.371004 -2.934796 -0.086913 0.354331 0.160511 0.189030 -0.433542 0.193996 0.079121 -1.612819 0.734939 2.568152 0.321245 0.410848 -0.492469 -0.340746 -0.093180 0.491755 0.208323
-0.831528 0.941712 2.759113 0.227133 -1.086627 -0.058731 0.235215 -0.173972 -0.342472 -0.627145 0.120358 0.529713 -0.251046 0.481460 0.577191 -0.008656 0.009439 0.488276 0.398324 1.100810 0.998289 -0.010081 -0.113557 0.022312 0.741333 -0.578060 0.325795 -1.381449 2.989211 -0.175175 -0.759603 0.255170 -0.144032 -0.452037 0.977346 0.180612 -0.400136 0.405839 0.188437 0.211812 1.056327 -1.236467 1.518171 -0.162270 -0.119635 0.346794 0.096384 0.577221 -0.658012 0.365392 3.544105 0.756414 0.453949 -0.120604 -0.258305 1.093072 0.618136 0.764833 -0.245778 0.470172
1.052119 0.212148 0.175586 0.755924 0.702993 0.780980 0.130627 0.899288 0.221039 0.212102 0.159900 0.845956 0.701122 0.538740 0.333218 0.942655 0.429288 1.004635 0.473394 0.223932 0.551643 0.345172 0.796112 0.624259 -0.367911 1.079094 0.397993 0.630740 1.281923 0.668637 0.152871 0.960198 0.735696 0.393225 0.245115 0.916978 0.678016 0.566475 0.804772 0.856916 0.426749 0.416838 0.005600 0.824891 0.085779 0.614124 0.779315 0.956940 0.426429 0.850975 0.424870 0.542059 -0.073646 0.493313 0.901378 0.194195 0.272489 0.749075 0.745762 0.709124
-0.343013 0.211168 -0.735209 0.213277 1.263049 2.587405 0.383712 -0.895939 0.270426 0.639412 -0.032020 0.225534 0.300886 0.525015 -0.160405 0.379068 0.307882 -0.013302 0.339411 2.624722 0.917014 0.037031 0.831939 2.447465 -0.552084 1.017844 0.549489 1.624221 -0.510223 -0.632884 1.434927 0.588485 -1.041368 0.574655 -0.792272 -0.567021 0.239726 0.189984 0.385012 -0.148810 0.499025 2.922957 2.497977 0.441072 0.272724 1.166992 0.035808 -0.278390 1.771748 0.302366 2.333746 -2.515723 3.373220 -1.025583 -0.360809 -0.117095 0.002160 0.213831 0.266656 1.027780
0.026622 0.678437 0.251458 0.961572 0.163695 0.378845 0.078973 1.054109 0.510152 0.624704 0.066028 0.763665 0.218494 0.903249 0.195097 0.204578 0.053630 0.509040 0.580577 0.008307 0.822039 0.466246 0.535548 0.474328 0.236227 0.581122 0.160374 0.209863 0.961675 0.966056 0.385908 0.273985 0.699839 0.427681 0.094742 0.177003 0.734052 0.672298 0.003806 0.238343 0.268405 0.713200 -0.054561 0.114754 0.833054 0.186467 0.663429 0.256933 0.118913 0.250296 0.776735 0.716951 0.762461 0.446562 0.694446 0.233666 0.310604 0.902759 0.022941 0.099390
-1.996779 -0.507862 -3.404024 0.482770 -1.168149 -0.316842 0.636586 -0.463475 -0.280186 0.113731 0.146775 -0.051598 0.381196 0.142881 0.140219 -0.168064 -0.064821 0.164207 0.634354 -0.053813 0.685469 -0.014669 0.499689 1.302774 0.150070 -1.662524 -0.045154 0.003850 -0.091767 -0.348761 -0.412874 0.491096 1.822881 0.112470 -1.265040 -0.526354 -0.649893 0.412304 -0.396573 0.206174 0.921822 0.987017 -2.366200 0.359184 -0.277375 -0.355550 -0.260137 0.854467 0.607727 0.255830 0.237153 0.563478 0.668695 0.240244 -0.011719 -0.226084 0.652419 -0.151523 -0.296053 0.344869
-8.708966 -2.267925 -12.698326 0.317518 -9.570349 5.299487 1.699934 -8.459736 -1.615682 -4.474506 1.076828 -0.361332 -1.083969 -0.420495 1.060432 -3.352341 -1.493450 -12.934744 -1.454317 16.335998 -5.103415 -1.114865 -2.474685 -9.499086 91.207546 -11.251258 -0.352504 -6.858999 -55.841352 -2.303580 -2.870177 0.152622 -8.119262 -3.852879 -11.136329 -9.202405 -2.635437 -1.353307 7.111728 -3.339147 -0.126410 -9.449445 30.434303 -2.834361 -2.078578 -2.110779 -0.258582 -2.072095 -7.679621 -0.807817 -37.448982 42.675686 27.510212 -9.015396 -4.492267 -1.875076 -3.448201 -0.379645 -0.604058 -3.261602
2.320046 0.552896 2.486163 1.075524 3.700981 -0.542375 0.700411 1.682627 0.520179 1.453443 -0.110050 0.671180 0.363585 0.276087 -0.341873 1.052818 0.455397 1.061607 0.250094 -3.192320 1.198867 1.060843 0.654536 1.775772 -5.796735 1.854925 0.297509 1.028241 11.767001 0.052285 1.481649 0.576595 1.631263 1.248507 2.090008 1.389218 1.091648 0.605467 -0.588817 0.805708 8.336881 3.696265 -1.544079 0.772002 0.865662 1.084939 0.163131 0.259018 0.920812 0.379540 9.951267 -4.929141 -3.499238 0.355336 2.082050 0.672224 0.649625 0.808433 0.325409 1.386388
0.814206 -0.487728 -2.802981 1.118088 4.296614 0.050558 0.344417 -1.180557 0.632616 0.403928 0.597372 0.142127 0.283955 0.770034 -0.597903 -0.531840 -0.230969 -1.510327 0.472637 -1.262244 0.526922 0.521765 1.011136 2.882879 3.508704 0.158477 0.053917 1.422285 2.013297 -1.087423 1.003175 0.172617 -1.096375 0.129984 -2.265732 -0.391628 -0.347087 0.764450 -0.503590 -0.557384 16.882800 5.235546 1.951291 0.486219 0.444694 0.520085 -0.652337 -0.436492 0.482012 -0.144346 13.333463 4.098847 -2.741775 -1.478605 0.469236 -0.622317 0.404334 0.429413 -0.007914 0.742732
-0.239733 0.168696 2.432954 0.395728 0.655354 -0.715971 0.552382 0.545066 0.590149 1.145600 0.377882 0.400227 0.315475 0.432220 0.022287 0.983103 -0.079275 -0.491690 0.595208 -1.824662 0.644228 0.238293 0.216624 0.940135 2.507993 0.708370 0.630794 1.797475 -3.542009 -0.311568 1.031026 0.738961 2.011782 0.367032 0.652061 -0.730454 0.591765 -0.047399 0.403555 0.098170 -8.662498 2.331124 5.843688 0.555500 0.018059 0.842670 0.381596 -0.159255 0.100597 0.543211 -2.609446 0.680559 -4.764987 0.762850 -0.309519 0.680712 0.744255 0.748788 0.683003 0.077709
1.229899 -0.651482 -5.707926 0.658901 3.102058 1.922020 0.465236 -1.468162 -0.145480 0.851326 0.130034 -0.001028 -0.040811 1.124196 -0.093868 -0.696506 -0.420567 0.375702 0.362017 0.531948 1.395577 -0.180212 0.626134 2.661446 0.119459 0.761595 0.029245 0.004892 6.427507 -0.681107 0.808131 0.195779 -2.397516 -0.447005 -2.967474 -0.027197 0.317200 0.344387 0.061265 -0.327060 23.994132 3.518378 -3.129719 0.731645 0.631048 0.488239 -0.659572 -0.685999 1.193410 0.238245 14.243028 3.768623 1.576262 -1.880862 0.598359 -0.347691 -0.341406 0.508668 -0.528760 0.781238
