1.419990 0.298982 2.331435 4.562781 0.090041 0.108723 -1.696561 -8.204900 -0.373961 0.287899 -1.918567 0.303432 -5.481479 -10.345986 -1.050083 -0.953782 -0.208476 -3.988348 -0.519099 -1.204480 -0.348961 -1.490433 -4.655285 -1.343277 -1.110940
-1.110193 0.123289 1.250399 -0.241340 -3.638986 -0.402962 -0.950177 1.401598 -0.103876 -0.235291 2.525501 -1.051475 -2.067712 2.526681 0.269937 -0.796944 1.170461 -0.769323 0.425005 -1.800019 0.496051 -0.195113 2.161850 -1.012512 -0.343509
1.418609 2.097735 1.197367 8.145591 3.070269 4.333097 0.146215 -1.632255 1.179589 0.521756 -0.159082 0.971924 10.408944 -4.038374 0.343047 1.004660 1.060719 4.127490 0.766726 4.336700 2.001974 0.903298 0.907714 3.910135 -0.934822
0.646625 0.478513 2.638122 2.452967 -1.290490 0.504134 0.377549 -1.514689 -0.061818 0.726199 0.077551 0.385321 2.975118 2.202009 0.374969 -0.161004 0.509532 0.893117 0.462149 0.153790 0.321990 -0.213938 -0.711480 -0.637801 2.002511
0.814219 0.464169 1.915237 1.461047 0.265731 0.343369 0.145390 0.280688 0.211974 0.154345 0.104127 0.235768 -2.419281 -1.382037 0.652690 0.862381 1.361854 2.895230 1.126967 -0.415574 1.317951 1.009111 0.743736 0.327866 3.019676
0.076987 0.094554 2.777479 -0.214636 3.153896 -0.262540 -0.526245 -4.048915 -0.611799 0.331504 1.349220 1.085885 -1.485875 -4.489098 0.582200 0.518098 -0.437861 2.591719 -0.378062 -3.608507 -0.817952 0.549411 1.864023 -0.668437 1.004445
1.049497 0.249694 0.595126 0.893334 1.275028 0.332217 0.642722 1.296209 0.293208 0.816562 0.357330 0.775032 0.982332 0.271347 0.123567 0.876970 0.427356 -0.342427 0.098729 0.300999 0.811964 0.080955 0.729728 0.327410 1.054263
-3.590075 0.356117 -0.240371 0.959961 2.560548 0.502315 -0.856978 11.271868 1.242815 0.342471 0.871923 1.249757 11.181237 -6.888485 0.420310 0.145370 1.649669 3.083073 0.996104 2.067991 0.615792 1.185602 5.756100 1.346453 -0.731167
-1.560355 0.360366 0.913326 1.747561 -1.080876 0.163743 0.005585 1.841479 0.075031 0.172540 0.287951 0.599368 -0.028230 -0.281809 0.507116 0.205046 1.594934 2.620839 0.832181 -1.349194 0.943429 0.444944 1.228176 0.322817 -0.676423
0.634863 0.701781 -0.366873 3.350612 -1.233403 0.377951 -0.927204 2.695492 -0.209917 -0.399316 -0.172457 -0.196520 -5.501682 -1.917625 -0.408642 -0.107383 0.294322 2.249848 -0.688279 -0.343034 0.676774 -0.689151 -3.345336 1.943085 1.002082
0.645259 -0.368594 1.977369 0.054049 -1.445256 -0.541191 -0.022407 0.801332 -0.202201 -0.268186 0.034320 0.815441 0.814631 2.927649 0.607765 0.537064 2.363609 3.409651 0.085486 -1.278533 1.621080 0.240393 3.594038 1.764755 -0.831803
0.677577 0.658386 -0.670947 3.103675 0.692811 0.675540 0.316454 -2.696620 -0.084903 0.661049 0.091912 -0.252954 2.440162 0.049062 0.422711 -0.211342 -0.725901 -2.448189 0.123074 -0.446461 -0.189935 0.135741 -1.736248 -0.287614 -0.214474
0.360198 0.535770 0.922933 1.051671 0.942249 1.114552 0.490480 0.809912 0.894586 0.343527 0.440275 0.146171 0.714758 0.716611 0.902700 0.720906 0.495473 -0.222481 0.229523 -0.134305 0.650810 0.798056 0.872540 0.364246 1.358507
1.029986 0.211953 1.803681 0.928442 0.287067 -0.646372 0.572683 -0.498076 -0.588576 0.038947 0.630357 1.066548 -2.894095 3.144992 0.067590 0.197352 -0.339753 -3.817488 -0.304288 0.072977 0.210103 0.192347 -1.097072 -0.188024 1.999379
0.530008 0.867972 1.018099 0.600530 0.101219 0.760270 0.012523 0.801704 1.018506 0.651310 0.358071 0.697973 0.717023 0.286186 0.950886 0.394057 1.128982 0.351083 0.276118 -0.160691 0.159113 0.038010 0.226552 0.731209 0.305327
0.598379 0.092867 -2.045960 -2.071395 0.424149 -0.123797 -0.116577 0.512765 0.210886 0.114817 -0.020108 0.240310 1.296005 0.551168 0.536017 0.502758 0.786605 0.908849 0.559537 0.378600 1.579704 0.816240 -1.402739 0.317672 1.265550
-0.764798 0.254925 -32.401712 -29.475839 -15.434158 -4.121747 1.634243 -53.047267 -2.331768 -4.087458 2.137199 -3.251419 -61.404949 22.031612 0.025806 -0.647863 -7.144611 76.410406 -3.491667 43.609438 -4.168061 -1.530172 -18.252365 -4.723301 -32.217399
6.132221 0.342315 4.765502 5.748130 1.133032 0.358541 0.430030 5.540100 0.240593 0.550761 0.615850 0.435027 10.718341 -1.477718 0.245572 0.121748 1.328437 -5.181616 0.625885 -7.890567 1.302447 1.148765 1.296645 1.179286 9.025178
15.316144 -0.329013 3.080643 2.678918 -0.616287 -0.559239 -0.816887 -0.618548 -0.977617 -0.018104 0.337369 0.189492 3.146005 -0.732544 1.341407 0.034225 -1.585927 12.114930 -0.685801 -4.749145 -0.424952 0.485676 -5.816060 0.390031 17.495499
-6.670724 -0.270276 3.850718 2.729784 -1.066595 0.414736 0.347793 0.746167 0.291766 0.450700 0.381666 -0.272633 -0.807548 -1.581951 0.550668 0.180048 1.256128 3.868074 0.073097 7.759030 0.416251 0.207582 1.784531 0.794327 2.176761
21.183179 -0.378707 0.738052 0.173449 0.872948 -1.065594 -0.107339 1.261417 -0.013925 0.603019 1.308155 0.126619 5.744934 0.758629 0.590621 -0.290480 -1.780202 8.976664 -0.003063 -13.206942 0.118869 0.037851 -5.170880 0.725074 15.486199
