-1.555628 -15.000454 0.200006 -0.481979 -3.943625 -1.338708 -1.891045 -1.002968 -1.631467 -0.675314 -0.329190 0.130487 -0.914731 -1.743735 -1.631212 -0.861375 -0.515960 -1.290206 -0.510959 -1.037960 -0.717764 -1.886495 -0.586135 -1.127434 -0.357190 -0.733900 -10.923240 -0.942658 -1.231843 1.732207 -0.419021 -1.248559 -1.798891 -0.295530 -0.675185 1.731018 -1.226989 -1.165727 -0.612860 -1.809455 -1.358723 -1.332365 -1.834129 -0.444621 -1.649666 -0.501874 -2.395444 -0.250307 -1.032154 -2.079812 -0.409995 -1.020041 6.655318 -0.510726 -0.630671 -1.988964 -2.209229 -3.515330 -1.472805 2.542620 -0.938781 -1.088524 2.568732 -1.761708 -4.531580 3.982333 -3.300031 0.032839 -1.665728 1.753251 -0.984388 -1.438378 -1.166588 -0.490060 -1.126342
-0.314948 1.839622 -0.272858 -0.727081 -1.962121 1.743939 0.056263 0.986095 -1.576237 -0.609195 -0.418145 -0.078634 -2.163255 0.224587 0.112028 -0.230844 0.156625 0.766551 -0.033155 0.198575 -0.271108 -0.124342 0.187759 -0.579720 -0.559560 -0.074204 2.177335 0.187090 -0.440136 1.364487 0.218783 -0.121128 0.861571 -0.890428 -0.746079 -0.962376 -0.523177 0.119222 0.138461 1.151632 1.396409 0.912212 -1.406111 0.346624 -0.321602 0.136210 1.563518 -0.000672 -0.557034 -1.052533 -1.236847 -0.286244 0.413962 -0.408748 0.019031 2.419736 -2.175833 -2.743630 0.319905 1.863938 -0.602593 -0.010332 1.070398 -0.521897 2.595932 -1.463745 0.544111 0.032192 -0.255325 -1.623184 -1.154034 0.017038 -0.141515 -0.960414 -1.079818
2.141468 -1.663521 0.365930 1.012759 3.814621 -0.309731 1.448666 1.977148 1.046248 1.130752 0.622824 0.836167 -1.519629 0.875038 0.297208 0.888868 0.355687 0.508862 -0.096449 1.080275 0.868569 -0.190265 0.734948 0.346860 0.895490 0.456206 1.066757 0.499135 1.486768 2.902607 -0.455290 0.055536 2.041566 0.966073 0.857620 3.770891 1.412096 0.643509 0.714331 0.341997 -0.221722 1.610200 1.672334 1.263728 0.708535 0.407478 0.561346 1.314881 1.818071 2.599669 1.948453 0.131442 0.334615 3.663952 0.892979 -0.055945 0.996697 2.894853 -0.018921 0.692122 0.800156 1.502949 1.185641 0.586093 -0.880477 -0.337254 -11.680872 0.993430 1.391276 4.915974 1.323522 0.649932 0.080724 0.502593 1.200175
-0.089113 4.645710 0.571205 0.363763 -0.151088 0.215781 -0.032872 0.368154 -0.272945 0.036149 0.750825 0.494562 0.777361 0.245568 -0.197643 0.685313 1.165556 0.735711 0.469867 0.009452 0.609388 0.258477 0.817580 0.391602 0.568936 -0.581629 -0.014380 0.637287 -0.128900 -0.379606 -0.348991 1.642493 0.137007 1.564318 -0.228762 1.240282 0.524744 0.125556 0.446329 0.809719 0.425825 0.460265 0.587911 0.527866 -0.286341 0.712801 1.748082 1.068642 0.435286 -0.258746 0.092955 0.601436 1.864403 -0.234214 0.705559 0.545257 -0.462936 -0.495074 0.081339 2.125140 -0.118978 0.201772 1.306841 -0.321582 2.430458 2.437401 -0.706024 1.012141 -0.496943 0.866508 -0.046547 0.303513 -0.079365 -0.013325 0.027692
-0.043896 -0.992070 0.827216 0.586898 0.335429 0.659146 0.519845 -0.010399 1.141465 0.245684 0.524569 0.087774 -0.639645 0.940771 0.722993 0.964689 0.553558 0.330130 0.208539 0.392592 0.472291 1.329030 0.644322 0.216664 1.077657 0.388630 3.313551 1.016375 0.324136 0.499941 0.268942 1.514087 0.059478 1.376926 -0.084335 3.372440 0.762220 0.716990 0.442717 0.392518 0.423327 0.488175 0.053181 0.360901 0.258279 0.574964 1.644007 0.099040 0.293179 0.809578 0.567399 0.752108 2.246778 0.180315 0.047107 0.519398 0.140698 1.435122 1.306054 1.058684 0.458885 0.565828 1.189978 0.530031 2.765099 2.110205 1.016319 0.894024 -0.019506 1.018631 0.077635 -0.028021 0.076473 1.125296 0.634395
-0.468990 0.664261 -0.030032 0.386305 -0.823732 2.143328 0.811133 1.449986 0.705600 0.247803 0.584137 -0.194187 -1.936097 0.228734 0.613303 1.222246 0.155717 -0.366391 0.529712 0.123121 0.386027 1.312605 -0.211034 0.568093 0.426541 -0.750800 4.000018 0.742273 0.531753 -0.966301 1.071387 0.269887 -1.668764 0.565746 -0.122360 -0.807756 0.686871 0.641600 0.079553 1.605007 1.916084 -0.661241 -0.140113 0.709606 0.128100 0.384653 1.294201 -0.063651 0.155722 -0.592859 0.077520 0.061408 2.230950 0.258445 -0.124806 -1.170130 -0.124523 -0.896808 -0.975415 -2.053390 0.195866 -0.387900 2.045359 0.387990 -2.746110 0.251093 1.951440 0.002561 -0.330327 1.649121 0.473219 0.503811 0.117234 0.979696 -0.411495
0.788336 0.396354 0.470422 0.967019 0.122143 0.465101 0.037518 0.552459 0.091963 0.131676 0.135287 0.674300 0.998882 0.607484 1.005216 0.420534 0.304343 0.933118 0.252171 1.014767 0.017980 1.061546 0.065112 0.919351 0.565488 1.092974 0.114612 0.630414 1.011636 0.496982 0.569507 0.769796 0.502560 0.713007 0.614926 0.426447 0.058872 0.301281 0.967935 0.966040 0.441457 0.659009 0.258185 0.205948 0.492548 0.352386 0.683631 0.101921 0.998092 1.050387 0.771975 0.513458 0.354209 0.938455 0.719501 0.226895 1.002908 0.901831 1.012088 0.793473 0.635825 0.432302 1.040176 0.902813 0.141459 0.114444 -0.078369 0.842024 1.055883 0.311654 0.626647 0.391662 1.010948 0.987884 0.930972
0.826828 -3.980838 0.305594 0.203080 2.864077 -0.033124 3.081167 6.468340 1.908063 1.147592 0.834182 1.318403 -1.886433 0.895296 0.450750 1.889067 0.473352 0.448922 0.691259 1.552754 0.575461 -0.574945 1.047058 0.898254 1.344899 1.611406 1.407144 0.820253 1.265273 -1.171830 -2.280015 -0.827455 0.230089 8.842560 1.710859 4.485849 0.380678 0.282258 0.172668 0.280392 0.101989 1.068992 -0.798611 2.321148 0.882305 0.543286 -0.313809 0.813195 0.987679 2.979845 5.071174 -0.332756 4.549808 3.244218 0.642344 0.630465 5.408912 1.568576 -0.449644 2.593161 0.483875 0.213722 1.193400 0.719538 -1.231300 0.341268 3.647270 0.530476 1.368561 8.509090 1.141778 1.129360 0.289040 -0.188324 -0.442977
-0.053920 0.314016 -0.025717 -0.200812 -0.648426 0.204069 -0.057841 -0.274038 0.716751 0.573107 -0.052181 0.527455 -3.186264 -0.077541 0.468681 0.773750 0.063117 0.243222 0.565172 0.658600 0.018752 0.668067 0.131754 0.230284 0.380793 -0.342676 0.626913 0.625955 -0.252696 -1.496395 0.607973 1.124298 0.315652 -0.190495 -0.173376 -0.572225 0.356546 0.107486 0.158272 0.667867 -0.048025 0.209547 -0.227512 0.089233 -0.207472 0.842135 1.898172 0.421570 0.579497 0.295439 -0.284316 0.455954 -0.426668 -0.362754 0.167024 -0.044370 0.223795 0.896357 0.869027 0.323984 0.347497 0.762500 -0.428408 0.053454 3.373958 -1.818696 0.706917 -0.033909 -0.359356 -2.027915 0.002666 0.560847 -0.072323 -0.230589 0.604874
0.637110 1.387256 0.412576 0.129877 1.774676 1.643931 -1.259352 -2.379612 0.111353 0.237947 0.082395 0.036973 -1.983752 -0.563943 -0.936540 -1.161159 0.028436 -0.241989 -0.437852 -0.583087 -0.192855 -1.746841 0.088725 -0.655486 -0.242789 -0.387962 -5.417218 -1.263905 -0.751629 1.838556 4.211097 0.377759 0.826344 0.539924 0.175505 1.513109 -0.101419 -0.705487 -0.165313 -2.157691 1.852372 -0.040711 2.695420 -0.933092 -0.321370 0.359918 -2.390231 -0.280334 0.169421 0.727620 -0.336024 -0.108560 1.248973 -0.406822 -0.461448 -0.572631 0.481259 2.002353 1.006854 2.330958 0.040012 0.072939 -1.166884 -0.664108 3.216290 3.175340 -6.357359 0.110604 -0.438300 -0.302511 -0.040266 -0.666351 -0.437824 -0.989313 1.237992
-0.688923 -0.360646 0.439955 -0.326366 -0.885017 0.771912 -0.057204 -0.028285 1.657715 0.380348 0.170777 -0.086205 -2.806450 0.071413 -0.461343 1.267014 0.622305 0.281558 -0.040658 0.571663 -0.216815 1.561001 -0.548370 -0.015070 0.641547 -0.575768 0.014441 1.269579 -0.260589 0.053376 0.128105 1.308683 -0.693993 0.958878 -0.317853 -0.690470 0.181775 0.035816 0.022258 0.797191 0.261908 0.099870 -0.066997 -0.257877 -0.953422 0.574157 1.647210 0.201479 0.223012 0.647137 0.304993 -0.142075 -0.100688 0.424831 0.007959 -0.560665 0.037576 1.652235 0.560196 -0.760203 0.789888 0.212393 0.644379 0.592845 0.744050 -1.376162 0.936564 -0.090001 -0.891605 -1.533962 0.437418 -0.313770 -0.429559 1.254252 0.745345
0.938159 3.889085 0.156761 0.730693 0.286653 0.134645 -0.035941 -0.296267 -1.179819 0.237666 0.400914 0.976029 2.107102 0.204325 0.568245 -0.569878 0.518840 -0.300176 0.927239 -0.430759 0.379691 -1.041571 1.246388 0.277522 0.084205 0.075375 1.230846 -0.678309 0.474346 -0.087207 -0.503482 -0.407373 0.835322 1.037579 0.033102 -1.466374 0.191886 0.340782 0.333137 -0.440258 0.306391 -0.051801 0.124103 0.736975 1.087917 0.283942 -0.796063 0.447576 0.085083 -0.949828 -0.480452 0.631302 0.844894 -1.134361 0.067997 0.167276 -0.562852 -1.501405 -0.226476 2.942049 -0.253039 0.307982 0.513252 -0.645570 -0.196726 1.405418 -0.236986 0.887763 0.461416 2.707389 -0.300510 0.248319 0.818550 -1.421736 -0.352612
0.222843 -0.089712 0.236467 0.648326 0.435109 0.837134 0.887593 0.457991 0.309923 0.400964 0.626038 0.298579 0.982278 0.445804 0.601370 0.485879 0.322664 1.071335 0.827301 0.185966 0.901821 0.568638 0.967425 0.833162 0.468981 0.093241 0.348442 0.634090 0.680398 0.246263 0.069340 0.944736 1.095262 0.695025 0.208340 -0.428704 0.033442 0.973652 0.138160 0.663370 0.260809 0.614833 0.627462 0.900178 0.248109 0.012667 0.245221 0.954789 0.905131 0.648986 0.695340 0.636977 0.236273 1.076404 0.465367 0.505061 0.596378 0.093404 0.224256 0.887530 0.100601 0.630072 0.346077 0.424077 0.473840 0.527665 -0.076782 0.332584 0.634996 0.704772 0.704469 0.979067 0.792697 0.320859 0.118274
-0.179010 6.381492 0.158605 0.464373 -0.189294 0.590517 0.566391 -0.480848 -0.057668 0.514740 0.522095 0.548190 0.699212 -0.137117 0.562737 1.030397 0.891511 0.167323 0.555084 0.181099 -0.018377 1.722459 0.080773 0.883175 0.548122 0.165821 1.021547 1.290090 0.624617 1.117179 2.450323 1.670928 0.599857 0.255423 0.235718 1.305693 0.715461 0.725201 -0.104501 0.719452 1.097551 -0.260916 0.277377 0.361027 -0.269995 0.492588 1.387649 0.920916 0.583806 0.592656 0.326707 0.648404 -0.374015 1.169493 0.639977 -0.090010 0.505975 0.212557 0.488988 -1.171747 0.557202 -0.046077 0.145767 -0.203410 2.188192 2.139053 -0.575196 0.094171 0.174061 2.527570 0.548052 0.075060 -0.084966 1.598378 0.228369
0.884488 0.432963 0.955637 0.817423 1.013033 0.329570 0.788896 0.441100 0.490938 0.631967 0.879683 0.994259 0.801859 0.431847 0.429932 0.757970 0.246599 0.134675 0.361390 0.302937 0.302725 0.248381 0.055269 0.022434 1.004621 0.438537 0.416837 0.709540 0.224953 0.920854 0.748344 0.110318 0.441701 0.888275 0.957418 0.305614 0.620582 0.175104 1.002801 0.260837 0.927461 0.676652 0.601097 0.535077 0.239335 0.177738 0.271436 0.200877 0.790586 0.361081 0.068166 0.958991 0.932150 0.951103 1.019930 0.206043 0.407265 0.771143 0.710577 0.214343 0.822223 0.232205 0.259449 0.547558 0.655838 0.623691 -0.085062 0.897619 0.276211 0.141723 0.897000 0.970600 0.872691 0.829782 0.674884
0.097026 -0.102866 0.274718 -0.295289 -1.172383 0.132608 -0.036962 -1.177456 -0.944675 0.170520 -0.195214 0.382870 1.674842 0.078078 0.306485 0.146653 0.134923 0.805263 0.216266 -0.075216 0.363824 0.188588 0.476030 0.599958 0.394847 0.853443 -1.235052 0.362700 0.303589 1.864469 1.154177 0.178248 1.910727 0.464830 -0.348799 0.826831 -0.231752 -0.166637 0.262243 -0.415806 -0.002965 0.973945 -0.019095 -0.562471 -0.154145 0.204296 0.250634 0.427073 -0.111025 -0.045996 -0.338230 0.366755 -2.369373 0.392884 0.347046 1.733818 -1.297822 -1.199773 1.373816 0.293418 0.377976 0.408891 -1.873707 -0.278154 -0.258672 -0.026559 0.249972 -0.120872 0.223219 0.545953 0.127013 0.519086 0.671444 0.148799 0.133197
-0.238830 7.234493 -3.378825 -2.765573 -1.906436 3.752104 -1.936995 -8.022482 -3.739883 0.189968 -0.338606 -0.749903 -27.988410 -0.690942 -1.073649 -2.570218 -1.189215 -2.803673 -0.969697 -2.916945 0.105323 -5.516578 -1.693184 -0.132604 -1.652296 -4.353488 -6.093937 -4.551417 -0.772117 2.180640 9.333926 -5.114726 -4.112731 -1.073150 -1.754636 85.825230 0.196743 -1.281578 0.078151 -5.076059 2.575867 -1.822448 2.224004 -1.590994 -1.260180 0.551655 -8.563879 -2.226631 -0.110405 -2.430176 -2.847483 1.540367 -7.036141 -8.958247 -1.321934 -6.653028 -4.925274 -3.202946 -4.019294 -7.415475 -1.174618 -0.076189 -7.985212 -1.838044 -14.087941 -13.676254 87.734642 -1.578620 -2.831903 -16.217840 -1.097532 -0.334331 -0.966876 -10.004401 -5.692854
0.126592 -2.445265 1.661749 0.676624 0.748467 -0.235929 0.846259 1.203213 0.650962 0.408628 0.807641 0.273171 2.669728 0.111503 0.204687 0.760200 0.448752 0.916554 1.007926 1.115119 0.262386 0.803158 0.429193 0.682644 1.008517 0.410284 2.127672 0.510813 0.651816 1.751162 -1.977894 1.912701 1.346357 6.757619 1.109098 -12.737609 0.905732 0.773638 0.884690 0.976059 0.035999 0.725552 0.339666 0.274298 0.243525 0.205704 1.149875 1.126859 0.264255 1.352260 0.869563 -0.095634 2.141172 1.239264 0.668161 0.991597 1.656412 1.513245 1.862244 2.349869 0.832672 0.186539 2.045513 0.192513 3.891846 5.095774 -7.189729 1.170633 0.935673 4.069374 0.611237 0.421888 0.587918 2.108773 1.774065
0.141967 -1.177127 1.117657 1.071359 -0.224486 0.297280 0.019496 -1.657974 0.177963 0.328082 1.307258 0.216537 3.390872 0.061955 0.357844 0.031117 1.086826 0.519712 0.545892 -0.381240 0.715122 0.742860 0.848257 0.159657 0.254493 0.344616 -4.796193 0.550451 -0.116551 7.069747 -2.236447 2.646846 1.370724 16.070378 0.234003 3.703535 0.327947 0.082078 0.712252 -0.307781 -0.327599 -0.424893 -0.901305 -0.153617 -0.206048 0.531883 0.462727 0.236317 0.093464 0.543616 -0.259164 -0.485549 -1.299168 0.505902 0.414884 -0.631731 1.192246 2.213814 1.717974 -0.287157 0.122472 -0.539491 0.716223 -0.760969 7.428084 9.216179 0.302343 0.158180 -0.272999 5.726787 -0.013008 0.076016 -0.011390 1.433814 3.356736
0.451679 -0.142233 0.893699 0.378550 -0.225318 -0.662744 0.378989 0.545026 0.847139 -0.139414 -0.134394 0.173510 -4.785330 -0.188228 0.339420 1.331446 -0.029707 0.388767 0.175833 0.900288 -0.166478 1.109385 0.647762 0.585408 0.598056 -0.167220 2.443002 1.126943 0.167045 -5.270523 -1.231150 1.176342 0.743671 -5.701366 0.245048 6.934818 0.311256 -0.071915 0.343974 1.198219 -0.792323 0.867736 -0.227949 0.765349 0.221638 0.283141 1.798486 0.847717 0.045279 0.168369 0.667118 0.362447 2.133036 0.627623 0.120863 0.789903 -0.206011 0.614757 0.126199 1.450562 0.219135 0.077054 1.577968 0.014362 2.909734 2.689275 -0.163537 0.081892 -0.525165 2.869839 0.340245 0.299148 0.101880 0.719265 0.993070
-0.200579 -1.087924 0.712917 0.618612 -0.270038 0.644280 -0.317837 -1.531921 0.412622 0.520416 1.339818 0.732751 8.643659 -0.526625 -0.158643 -0.332122 1.075410 0.569519 0.751328 0.276754 -0.149817 1.228532 0.371977 -0.199465 0.503500 0.260301 -6.029348 0.151749 0.415275 10.921940 -0.059691 2.457522 0.737157 21.052422 0.156726 -2.955975 -0.289860 0.618985 -0.029816 -0.499116 0.707840 -0.494011 -0.532798 -0.555896 0.600492 0.204269 0.178612 0.462915 -0.494027 0.458937 0.712984 -0.098447 -2.477035 0.861429 0.056363 -0.897687 1.212488 1.709875 1.914629 -1.889634 0.265960 -0.419571 -0.113349 -0.396174 5.183625 5.369470 -0.095028 0.076188 0.208533 2.360224 0.315498 -0.234199 0.847325 2.063997 2.292108
