1.897760 -0.376652 1.030848
1.183564 8.528503 -8.536437
-0.492454 -0.428689 2.192598
0.452646 -0.678080 2.188116
4.620275 -2.575500 -0.227756
0.500301 2.857209 -1.341437
1.453854 -1.565022 1.553382
0.391058 -3.201741 3.723254
1.190630 -2.273735 1.312256
0.992814 0.330391 1.155262
-0.902206 0.683068 1.469594
0.068887 0.029170 1.087945
-1.374699 -4.440507 7.301033
0.648836 -0.691897 1.037197
0.596263 -0.522103 1.438670
0.382666 -0.747252 2.101080
-1.027268 0.193900 1.336183
0.098206 -0.944041 1.942317
-0.604305 0.585903 1.586813
0.967014 -1.018386 1.786816
0.661928 0.074075 0.841018
-0.645064 -1.239546 3.351709
-0.002499 -0.485132 1.464142
1.015094 -0.006083 1.321446
-0.106783 -0.478002 1.493314
1.055713 -1.612015 1.595597
-1.731958 -7.008901 9.628481
0.401808 -1.488296 2.315684
1.136211 -0.593328 1.706085
-9.877270 5.399062 5.590281
4.680831 1.499393 -4.749543
-1.831055 -0.469278 3.512415
0.886438 -2.174322 2.534268
-23.014423 13.315510 11.835461
1.254254 -0.826310 1.629700
13.224235 2.836938 -14.680765
1.310666 -0.258884 0.729277
0.184629 -0.037880 1.611283
0.822632 0.354607 0.968482
0.026820 -1.742972 2.451381
0.451828 2.505362 -1.027307
0.708705 -1.304332 1.438416
2.725601 -0.904465 -1.665686
1.224676 -0.935321 1.757906
0.739354 -0.650701 1.332240
0.412352 0.421530 0.186793
-0.469498 -1.916575 3.909144
0.082560 -0.945550 1.231154
1.621025 -0.521409 0.932911
2.193514 -2.014326 1.033103
0.040592 -1.303627 2.774068
1.119968 0.471768 -0.375579
-0.693099 -2.945396 5.698520
3.989990 -3.200014 1.374299
0.784033 -0.226345 1.658634
0.570750 -2.100031 2.923728
0.768157 -2.397130 2.657832
2.481707 -3.066593 2.580306
-1.398185 -0.675020 2.632870
1.190388 -2.781791 3.410046
0.733007 0.127129 1.663695
1.579622 -0.340716 0.687303
0.866244 -2.374710 3.539495
1.237041 -1.172355 1.545351
-2.615400 -3.602462 8.684946
-2.665219 -3.599778 6.604715
6.147140 9.924810 -14.314673
0.542379 -0.104797 1.641775
1.540850 -1.438991 1.539086
2.360094 -5.957662 5.149024
1.255493 -0.623620 1.638863
0.288644 -0.649902 0.992220
0.014024 0.303957 1.646969
0.791041 -2.775135 3.284837
-0.085047 -1.708504 3.285742
