-6.298563 -1.127723 2.956926 0.921162 -13.466168 0.965303 -2.845597 -4.170241 1.088724 0.134490
-5.414456 -0.144880 1.302875 0.113280 0.658342 -0.712406 0.177593 -2.983010 -0.364074 -2.530915
6.643987 -7.959677 7.447423 0.080780 -1.645082 2.978347 14.496652 2.062485 -3.149344 4.050148
1.906322 -1.875969 2.549985 0.833758 1.266887 -0.638555 -3.871759 0.996549 1.192263 0.859710
4.920053 -2.678776 0.691945 1.032466 -1.381804 0.317089 -1.297825 3.297222 1.253070 1.299079
3.940647 -3.536401 0.399437 1.027003 2.434682 0.713851 -0.475274 3.773408 -2.119873 1.814962
0.110782 -0.123005 1.368921 0.683840 0.026261 0.772816 1.052432 1.325784 0.692889 1.132446
-7.490321 -9.708379 0.680694 -3.324913 -1.567949 5.932818 15.672237 -0.418267 0.004079 -0.837955
-1.620464 5.619978 0.954096 -0.489606 -0.718842 -0.849129 0.255754 1.026058 2.889871 -1.203867
6.027986 -4.676754 0.010193 0.425211 4.810407 1.105555 -1.476967 2.948340 2.892212 -0.667717
0.913962 3.479633 0.789545 1.440154 1.712061 0.164133 0.593941 1.102079 1.609065 -0.681486
1.120316 -1.106866 2.963219 1.228551 2.742303 -0.119790 -3.059521 -0.032476 3.891238 0.890863
0.463866 0.392509 0.912775 0.581930 0.050614 0.682626 1.732620 1.450094 0.807375 0.679692
2.835169 3.777515 2.673317 0.433939 1.948696 -2.900797 -0.996722 3.334006 1.548907 1.152852
0.757980 -0.020156 0.872297 0.471468 -0.069635 0.246260 1.102003 0.604368 0.550909 0.333425
0.224503 -0.043487 -0.778453 -0.492275 -0.714899 -2.444864 0.025329 0.149235 0.286176 2.080326
31.570285 47.625049 -34.687479 -8.608567 3.334437 -23.970683 -91.468286 -25.741244 -71.996398 -4.732583
-3.097626 -2.425570 4.451411 9.519028 -2.312566 -0.666299 7.800346 9.347049 11.475248 1.200004
4.992430 2.366119 -0.441470 12.584440 -0.533895 -7.881722 -8.180659 11.665477 11.015014 3.266801
0.646928 3.319684 5.014285 -8.019135 -2.023163 0.648965 -1.375342 2.362560 -2.811572 -0.135518
2.695797 -1.265246 -4.940096 19.693899 1.759056 -9.721882 -3.862458 9.635890 14.891441 3.958468
