-3.525228 -4.760705 9.452150
1.386882 -1.743548 1.351512
14.106273 -7.959627 -5.730792
-4.863737 -0.679525 7.440399
-0.238439 0.878120 0.779004
-1.941219 2.700537 0.478733
-0.359608 1.739143 0.206074
-5.908632 -1.754837 9.342514
1.879665 -6.777240 6.669762
0.064073 0.899957 1.217809
-2.915851 -2.842106 6.474316
-3.770365 1.366679 3.836686
-1.028375 0.834204 2.152860
-1.177979 0.922752 1.224904
-3.554272 3.344016 1.260697
8.964588 -7.550121 -0.009718
-0.155682 3.976823 -2.133558
-11.989776 -0.638318 13.675993
8.578233 6.340419 -12.846833
0.453328 1.729543 -0.428052
-3.232208 0.181498 4.371537
1.494725 2.339228 -2.882670
-0.624684 2.889666 -1.333682
-0.192696 0.543178 0.683180
3.973969 -3.751762 1.360365
1.384742 -1.995219 2.687028
-0.468017 0.289449 1.157263
0.473089 0.947056 -0.511377
-11.435799 5.936345 6.926907
-1.129841 4.786277 -2.703787
-0.774755 6.232664 -3.545827
-3.755371 2.147915 3.107788
0.985119 -1.022646 1.803785
5.442938 -0.900072 -3.500080
-4.282476 -3.909275 10.196121
-0.539664 1.308235 0.404468
-4.219785 -3.958862 10.590378
-2.661900 1.016642 3.845513
-0.960627 2.385806 -0.464877
3.655427 8.731567 -10.415840
