-5.115854 0.167636 -0.899045 -2.991912 -1.273787 -0.932825 -1.718686 4.081072 -6.723927 -0.500050 -0.873949 -0.789569 -0.207105 -0.939744 -0.244381 -0.191549 -1.433623 -6.317029 -3.093953 -0.329209 -0.591875 -3.423620 0.038540 -0.833480 1.109318 -1.277650 -1.358876 -1.797614 3.322059 -4.836935 -7.586748 -0.921970 -1.071975 -0.230900 8.036525 -0.590295 -1.010603 -0.823656 -0.335390 -4.218295
-1.443137 1.164215 -0.141024 1.667464 -0.241497 0.112361 -0.348294 -1.230724 3.313726 -0.426086 0.800056 -1.092904 0.330104 0.185288 0.938845 -0.428207 1.671552 0.828230 0.479636 -0.202277 -0.125702 1.097450 1.264835 -0.207685 -0.155176 1.308833 -0.424021 -0.416824 -1.158859 0.985514 0.977801 -1.341527 0.038151 -2.051894 0.233329 -0.097499 -0.226700 0.027606 0.387569 -0.366089
9.147496 2.223404 0.177145 0.268310 0.086658 -0.054894 0.203778 1.226223 9.353382 0.196624 -0.982259 3.106456 1.124088 1.052778 1.374142 3.075937 -0.965974 -3.062974 -8.817254 -0.344905 1.143394 -1.836069 -1.349417 0.433355 4.228578 2.194857 0.317674 0.048454 2.100661 -1.267950 -0.828959 2.404727 2.301569 -0.584876 -1.094779 0.605604 -1.357288 1.892241 -0.551023 5.284520
-2.246690 1.088543 -1.519017 1.234707 0.224615 0.414530 0.949212 2.580507 -0.988185 0.486632 0.971684 0.420618 0.302506 0.230283 1.107980 -2.326661 0.022455 -2.019875 -0.908770 0.794702 1.471650 0.757203 0.143089 0.268734 0.051718 -0.754781 0.310184 0.649446 -0.086929 0.151500 1.355100 0.031801 -0.084510 0.333036 3.830519 0.187348 1.149140 0.618762 0.204048 0.913915
-0.573088 0.855649 -0.280683 1.981791 0.086569 0.285763 0.168030 1.822386 2.139043 0.625186 1.994599 0.282025 0.742403 0.321517 -0.338084 -0.201946 0.475926 -2.220041 -1.500599 -0.017163 1.183063 -0.607901 0.376295 0.908176 0.162003 1.394443 0.940429 0.358668 0.683575 -0.136409 -0.072376 0.935634 1.223443 0.465017 1.352383 0.284493 2.295854 1.433666 0.375913 3.057051
-0.260115 0.023551 -0.810473 1.804041 0.539795 -0.360973 -0.128045 -0.284955 -4.501769 0.125688 2.445711 0.277530 0.667749 -0.069110 0.670517 -3.243213 0.911028 -2.189557 0.801610 0.783957 0.597742 -0.648017 1.497319 0.260370 -0.573381 1.083686 0.971775 0.068028 -0.330643 0.705362 1.920642 0.223340 1.131468 -0.551742 1.510322 0.470634 0.587765 -0.208181 0.922227 -3.274464
1.328842 1.019694 0.915411 0.511078 0.007801 0.894773 0.429977 1.190212 1.298040 0.875002 0.510970 0.428870 0.899316 0.366219 0.056775 0.861420 0.806623 1.052405 0.135985 0.096865 0.706600 0.883352 0.079969 0.527497 1.073521 0.856367 0.727280 0.673079 0.411782 0.224409 0.732909 0.858008 0.903235 0.843961 0.847659 0.519269 1.130780 0.728381 0.646022 0.364739
9.431836 0.495858 -6.785674 -1.973522 0.253802 -0.731710 0.217166 -1.861574 1.032227 0.258008 -1.698649 -1.549927 -0.100744 -0.186194 -1.095395 4.515494 -0.001717 -3.748209 -11.451013 0.032782 -1.573998 -1.295247 0.133192 0.420829 2.765680 1.109036 0.114458 0.146566 -3.099104 -0.335790 -0.083767 -1.737103 0.146753 -2.692703 3.588824 0.429904 -2.075324 -1.475770 -0.182949 -12.731135
-0.791925 1.479046 -0.447361 2.205484 0.913660 0.766597 0.483298 -2.455103 2.744972 0.098019 1.848627 0.687078 -0.005505 0.205479 -0.128945 -1.821001 0.384520 0.268977 2.234180 -0.054799 0.717639 -0.471316 -0.197746 0.391857 -0.077560 1.610701 0.626718 -0.136476 -1.684711 0.208153 0.154650 1.332939 1.136350 -0.017958 0.464614 0.496807 0.828706 1.061392 0.513822 -2.329870
-5.025372 0.114411 0.122010 2.890204 0.429749 -0.279943 0.096011 3.239286 4.396263 -0.311495 -2.221717 0.478454 -0.272184 0.410361 2.378580 1.067914 1.708009 -0.422050 -6.007784 -0.090919 0.740870 0.304085 0.550466 0.421307 1.071778 -0.118814 -0.292593 -0.173723 -0.105037 2.720568 4.123266 0.198443 -0.167872 2.123310 0.173578 0.258407 -0.719005 1.203724 0.303560 2.526452
-0.474204 0.716230 -0.648381 1.586565 0.155290 0.856173 0.474748 -2.519810 0.065859 -0.058642 1.131420 0.513087 0.798911 0.277305 0.563565 -1.137622 -0.274845 0.937635 1.366141 0.455741 1.106894 1.601796 0.407569 0.353453 -1.549344 1.489748 0.315005 0.779000 -0.868008 0.008023 -0.916762 0.199381 1.443579 -0.112321 -0.564551 0.536059 0.633964 0.718023 0.823205 -0.979326
-2.986953 0.657112 -0.116385 -0.462932 0.804979 1.190950 1.235693 1.635576 -0.851480 0.095071 0.197296 0.360943 0.206076 0.719839 0.646754 -0.096998 -0.554532 1.954165 -0.047391 0.235067 -0.439364 1.243263 0.328323 0.530150 2.214163 -0.700631 0.096363 1.208216 0.110537 0.927116 -0.394745 0.892388 -0.506809 0.786051 4.766085 1.026363 -1.336096 0.190715 1.304362 -1.026480
1.206736 0.782322 0.397340 0.852604 0.577647 0.881700 0.058501 0.586482 1.502501 0.920521 0.813341 0.701180 0.329879 0.266432 0.319855 0.795039 0.448556 0.777814 0.304044 0.979257 0.829421 0.436881 0.208255 0.830060 0.944317 0.319292 0.959947 0.784000 1.061863 0.615524 0.519569 0.494667 0.975294 0.741015 0.519815 0.049993 0.894458 0.939901 0.920361 -0.412898
2.452269 -0.340616 0.168889 2.322479 0.619486 -0.054430 0.128967 2.376690 -0.462744 0.589172 1.318039 0.892159 1.089526 0.426701 0.040078 -1.171285 3.643296 -3.184028 -2.184844 -0.195480 1.765222 0.587954 0.396769 0.509286 0.805379 -0.375757 -0.017305 0.536403 -1.036671 4.870846 0.314121 0.070836 0.591971 2.362334 2.168414 0.126050 1.674376 0.512501 0.076196 1.819902
0.737627 0.234539 0.136147 0.041435 0.350883 0.577546 0.387803 0.472143 0.961712 0.351145 0.577826 0.792931 0.402823 0.630669 0.824825 1.001454 0.125200 0.998773 0.374381 0.248528 0.483405 0.943212 0.463136 0.330271 0.669330 0.259024 0.080292 0.123517 0.139221 0.128120 0.110579 0.644300 0.187989 0.331628 0.995785 0.473095 0.752478 0.187426 0.182994 -0.089555
-1.244983 -0.007488 -2.340965 0.838158 0.133587 0.338023 0.148810 0.319968 -1.876975 0.794090 0.128004 1.085228 0.751290 -0.018913 1.340529 2.472144 -0.154023 -1.239884 0.200512 0.873888 0.702787 -0.029739 0.134715 0.436721 1.443305 -0.019208 0.405928 0.548151 0.455186 -0.217820 1.778224 1.242314 0.100596 -0.391961 -1.600169 0.325737 0.690139 1.012515 0.342643 -0.293402
-40.598755 -3.295520 -0.776288 -14.018428 -0.267243 2.772765 1.118560 -14.853438 -17.143710 -0.549352 -22.418246 -2.352909 -1.778578 -0.575071 6.186499 -25.456971 5.890251 -64.696121 62.474451 2.447608 -7.644256 7.285344 6.274302 -0.312537 -10.090225 -7.472725 -1.259991 1.057155 -3.728563 4.284832 2.292036 -0.622214 -2.281237 6.066031 -26.978798 1.065307 -36.251865 -4.855578 3.817909 64.173246
3.667929 0.387072 -5.370519 5.018513 0.995663 0.523491 0.514825 5.947715 4.662220 0.328711 3.198549 1.409387 0.936330 0.551913 -0.587783 2.207064 -1.284457 12.786097 -4.702594 0.202008 2.449770 -1.128159 -0.737631 0.222059 1.333307 1.851582 0.551480 0.602642 3.256518 -1.131736 -0.873777 1.250813 0.690040 -1.323438 3.834598 0.906555 6.993810 2.459188 -0.355948 -4.401719
-0.892925 -1.062350 -11.110549 6.711220 0.697800 1.993995 0.494892 12.191315 1.398116 0.484591 1.152230 3.653593 1.516698 1.160721 2.277413 -1.198828 -0.641324 0.591049 2.166595 0.490353 3.618764 0.383692 1.050896 0.625216 -0.500123 -0.332886 0.617204 0.192242 6.564031 -0.797095 -1.021379 3.358048 -0.017188 -2.660783 -4.548259 1.121132 9.493920 3.022586 1.305085 4.399986
-4.583462 0.789822 5.747276 1.459803 -0.292401 -0.557433 0.278961 -0.726977 4.220371 0.444277 1.317417 -0.030334 -0.274427 -0.150379 -1.302840 -3.159857 -1.733605 -5.580502 -2.185967 0.238421 0.503309 -1.066983 -1.353894 0.078585 0.317745 1.630213 0.214573 -0.134165 -4.923813 -0.885929 -1.075312 -0.502536 0.902949 0.746848 0.815778 0.352823 2.004411 0.193589 -0.440183 3.288310
5.254679 -1.677112 -15.829551 5.267331 0.607405 2.611203 1.486810 12.748054 -2.425414 0.547840 0.711177 4.243706 1.164177 1.852625 4.567580 0.156963 1.429375 5.283684 2.206941 0.647530 3.866583 0.930718 1.946571 0.567075 -0.886586 -1.042236 0.648668 0.011762 10.291967 0.785919 0.150391 3.666253 -0.901581 -3.553845 -6.191819 0.980066 8.625299 2.986131 1.735843 1.185720
