0.950823 -0.205629 0.547892
0.885476 0.581412 -0.425993
0.441028 -0.259529 1.118843
-1.272175 6.854462 -4.602715
7.078378 1.875469 -7.126907
-0.103441 0.113164 1.755175
0.031631 1.241766 0.237379
7.586866 5.220807 -10.473166
6.179931 3.898330 -7.652022
0.241724 -1.486523 3.459425
0.504062 1.356284 -0.330413
0.416674 0.436339 0.928948
2.303481 -5.781768 4.768093
2.577262 0.712560 -1.567587
1.395735 1.836783 -1.886530
-1.631001 -4.139396 7.655548
2.209497 -1.883735 1.199861
-0.417348 -0.193941 2.038101
-11.087493 0.261349 13.091430
0.062222 0.676541 1.167759
-12.725547 2.281877 12.171293
-0.137421 -1.394833 2.609226
-11.971742 1.748631 11.218516
-1.018679 -0.680666 3.237540
-1.590100 3.010385 1.271734
0.237515 0.684223 -0.008802
-0.965073 -6.614239 8.413688
3.351590 -4.127602 2.675618
-0.617603 1.520804 0.793731
-0.078580 2.293653 -0.805253
0.718719 -0.080254 0.358368
-0.153511 0.096376 1.665405
0.579929 -0.020264 0.974590
1.917509 -1.609595 1.693955
2.848323 -2.926062 1.733527
2.579099 8.282779 -9.328490
13.536312 -7.093361 -5.547046
-1.750948 -1.643257 5.100300
5.788596 -3.302557 -0.463696
1.966005 -1.689980 2.116277
4.045379 -3.710847 1.183957
-5.328520 -3.391840 10.290384
-0.662562 -4.008693 6.066623
-8.971396 5.910318 4.302134
-0.578492 0.485171 0.849649
1.003131 2.874672 -2.229279
0.120170 -0.252799 0.909832
-0.501728 -0.295442 1.742049
-0.734497 -0.379017 2.700179
0.820573 0.286394 0.572625
