-1.080725 -0.806163 -0.692457 -1.143068 -5.669152 -1.454941 -1.020684 -3.163948 -2.095647 0.222780 -0.980183 -0.437068 2.238847 0.008727 0.145008 4.186735 -1.635660 -1.354192 -6.869786 -0.954000 -1.855258 -0.736250 3.467715 -0.916887 0.718387 -0.826875 -7.416914 -1.209150 -0.768050 -2.535927 -0.765425 -1.263839 -1.131107 0.718575 2.624307 -13.637216 0.318703 -0.679837 2.101711 -1.616829 -2.002388 -6.080400 -8.802561 3.594019 -1.923071 -1.099567 -1.032417 -1.009334 -1.118980 -1.489986
0.501303 -0.053803 -0.010085 -0.190194 -1.045927 0.560594 -0.560717 -0.891450 0.709226 0.832242 -0.239068 -0.679821 2.399941 0.534105 0.989032 -3.156426 0.549868 0.389344 -5.303618 0.367934 2.102312 -0.499548 -1.397088 0.278358 0.359976 -0.104528 1.056324 -2.606166 -0.413315 -0.139564 0.052643 0.260828 -0.003415 -0.206565 -1.441078 2.496735 -1.236255 0.329140 -0.904274 0.426242 0.832948 1.813197 2.279603 -1.193518 0.100364 -0.692967 0.035810 0.613326 -0.812197 -0.575387
0.192169 0.277643 0.629524 -8.719483 -3.360212 0.523552 0.352073 5.140251 -6.730370 -0.244145 -0.125339 0.304555 1.563189 -0.109828 -0.720329 -0.419199 2.763183 0.723559 8.300866 0.465729 -2.179948 1.501462 0.236664 0.625214 0.834433 0.243560 -0.957272 2.836552 0.082424 -0.700384 0.572080 0.699843 0.483999 1.284035 2.877172 -3.302323 0.247934 -0.037214 2.452847 2.995473 3.272988 -0.102794 1.758144 1.227603 0.324105 -1.472345 0.733374 1.031943 1.765129 0.344959
0.605109 0.065598 0.076856 -2.306182 1.671883 0.068932 0.461867 0.345686 -0.815166 1.095257 0.276844 0.510605 2.058522 -0.035187 -0.203039 2.610702 -0.477336 -0.014976 -2.554604 0.553447 1.003620 -0.187448 1.853537 0.264952 0.377656 0.047569 -0.197758 -0.199288 0.851606 1.129878 0.212571 -0.042141 0.604340 0.917127 0.577827 3.690758 -0.792969 1.519729 0.068107 -0.601045 -0.894223 1.785254 0.038235 0.616805 0.350520 0.824704 0.554974 0.880319 0.313479 0.404551
0.619271 0.005521 0.127315 -1.149340 -0.255723 0.082262 0.090671 2.732421 -0.273667 0.352727 0.485114 0.660460 1.755453 0.070691 0.633807 2.035678 0.101026 0.973864 -2.501201 0.839103 1.324434 0.761608 1.141547 0.743809 0.146191 0.218174 0.399531 -0.114258 0.910991 0.342906 0.736088 0.667041 0.613791 0.381853 0.453934 -0.587844 -1.012775 0.718452 0.113719 0.056425 0.357311 1.987676 1.727391 0.867504 0.063241 1.087732 0.400374 1.158306 1.145444 0.804658
-0.270581 0.499924 0.125468 -0.292228 -2.456603 -0.272254 0.592717 1.817203 -0.065865 -0.014473 0.202529 0.788841 -1.703918 0.266864 1.657985 1.533207 0.154061 -0.225792 -2.817227 0.065956 3.658947 1.134660 -0.374707 0.513350 0.681106 0.132592 1.443314 1.425995 0.459547 1.473402 0.332135 -0.225981 0.028926 0.464309 2.008185 0.663435 -1.268136 1.216400 -0.574437 -1.379258 -0.159018 -2.592343 2.535755 -0.628790 0.083420 2.965865 0.275723 0.144050 0.394473 -0.312827
0.083782 0.456390 0.641536 -0.064108 0.474059 1.139177 0.551577 -0.303258 0.360656 0.526740 0.429086 0.123207 0.226331 0.893068 0.737947 1.066186 0.560145 0.284935 0.678265 0.267025 1.024746 0.935582 1.056028 0.506344 0.948639 0.772673 1.095704 1.008098 0.457494 0.138484 0.372682 0.871684 0.055847 0.260364 0.200608 -0.307301 0.687821 1.046611 0.503803 0.229536 0.701282 0.794866 0.304599 0.504520 0.415035 0.445911 0.666885 0.168046 0.578042 0.657889
0.529353 0.051267 0.907987 -10.026965 -5.855144 0.667527 0.024960 2.361136 4.608324 0.092355 0.102929 0.822841 0.921016 -1.314752 -0.716507 -0.111226 2.061433 0.744028 9.366040 0.081418 -2.584926 -0.371609 -1.792783 -0.389451 -0.025655 0.252685 8.812263 0.360121 0.775898 -0.408783 0.096816 0.816765 0.831342 1.737859 1.501657 -4.773752 -6.140797 -1.100844 -1.384225 1.722047 2.834482 -1.636098 1.552587 -0.451863 0.381353 -0.938618 1.025164 0.450242 0.208806 0.762898
0.063222 0.780727 0.362422 0.745314 -1.007995 0.830064 0.299366 1.555003 0.917324 0.127688 0.204414 0.862098 3.179547 0.831787 0.996587 -1.533140 0.088813 0.585213 -1.086372 0.608066 3.631152 1.080304 -2.508818 0.838816 -0.156288 0.422234 1.188087 -0.131121 0.229273 -0.098146 0.110239 0.988305 0.692615 0.071102 0.204263 -0.008844 0.378757 1.072693 1.285445 -0.145071 0.738193 2.849250 0.476137 -0.883109 0.861498 0.967773 0.870569 0.851701 0.621005 0.034095
0.051694 0.184783 -0.345936 0.978721 -1.717777 0.116567 -0.438421 2.004511 -4.188656 -0.517053 -0.408679 -0.121773 2.743637 -0.278984 0.084570 -1.809598 -0.790018 0.739884 -2.772829 0.497913 0.125993 1.296999 2.053200 1.344833 -0.054665 0.196651 -4.817139 1.525729 0.197692 0.967341 -0.120464 0.741327 -0.017491 -0.143448 0.931898 1.571228 0.403193 1.589178 2.005047 1.006749 -1.025689 3.718342 -2.682647 1.066022 0.030266 0.442495 0.030832 -0.446316 1.769415 0.253526
0.090821 0.188350 -0.119623 0.448975 -0.377050 -0.023214 0.605899 1.776811 1.502436 0.790709 0.512590 0.365157 1.706010 -0.169752 -0.722267 -1.390663 -0.133731 0.819713 1.111026 0.034179 -0.135533 0.689828 3.043710 0.821157 1.276140 0.125379 0.222970 -0.882649 -0.055200 1.024038 0.352470 0.648261 0.635048 0.177168 0.144291 -0.000213 -0.532052 1.413810 -0.746655 -0.427792 0.769057 0.129275 0.589031 0.004766 0.519255 -0.067019 -0.076770 1.215846 0.616486 0.418330
0.343005 0.844731 0.490831 -0.440960 1.493960 0.379194 0.039400 -1.113165 0.115941 0.435865 0.779802 0.066219 0.290082 -0.141454 -0.115397 2.367085 0.229509 -0.129771 4.089468 0.349399 0.542484 0.063487 0.368562 -0.292366 0.847916 0.855714 -1.874680 0.704100 0.411247 0.942500 0.355952 0.476419 0.126514 0.128095 0.339162 2.013224 -0.015180 -0.678339 0.181733 0.456306 -1.829270 0.355490 0.275225 0.083800 0.818344 0.278629 0.698140 -0.311413 -0.447257 -0.101511
0.201591 0.228839 0.235000 -0.374100 -0.030883 0.556332 0.222229 -0.151251 0.116802 0.913414 0.034014 0.845810 0.916386 0.040214 0.778562 1.223955 0.138465 0.357191 1.252960 0.766960 0.629877 0.295404 0.744352 0.654828 0.613744 0.387494 0.906727 0.987775 0.054976 0.193112 0.729645 0.979358 0.549456 0.658882 0.203116 0.204905 0.377075 0.444041 0.293588 0.492482 0.105585 0.574335 0.327234 0.384448 0.130686 0.758563 0.618104 0.804904 0.941529 0.513237
-0.330526 0.493863 0.380705 -1.669147 2.634210 0.052950 0.172039 -2.729973 2.001707 1.369989 0.227549 0.977434 -1.151783 0.373584 0.508785 1.932197 -0.179512 0.231833 -0.993398 0.218590 0.931976 1.036996 1.263298 0.979352 0.230158 0.759848 0.424968 -0.043056 0.771476 1.174174 0.521100 0.136302 -0.006288 0.540113 1.122869 5.225599 -0.229765 1.904386 -0.288455 -0.330889 -0.897866 1.860936 1.483514 -0.647429 0.120343 1.702752 0.147497 1.018170 0.273111 0.190619
0.554151 0.036374 0.355962 -0.086113 -0.024027 1.031702 0.324248 0.612807 0.141810 0.764637 0.750691 0.607461 0.622503 0.386043 0.322459 1.022107 0.864709 1.000716 0.178615 0.728715 1.021363 0.194400 0.165516 0.794322 0.557094 0.843484 0.290377 0.826022 0.201275 0.128055 0.167108 0.837143 0.684842 0.572828 0.386706 0.714695 0.340753 0.904982 0.456689 0.402161 0.499998 0.384164 0.828352 0.506416 0.237756 0.834585 0.392432 0.587990 0.944501 0.630184
-0.176559 0.723004 0.148004 -0.867331 -1.019182 0.995916 0.497995 -0.190038 2.072265 0.550367 -0.086325 -0.100558 -1.517631 0.584494 0.970719 2.022523 0.359103 1.031892 -0.778075 0.820214 0.294050 0.284240 -0.090448 0.268014 0.961568 -0.152713 0.551357 -1.325446 0.585328 0.248594 0.252951 0.701696 0.039227 -0.297749 -0.433479 2.421960 -1.812988 0.626791 -0.757516 1.593519 -0.592568 0.227221 3.394497 0.713785 0.104263 1.270883 0.678055 0.623758 0.397637 0.605076
-0.403555 1.485797 -1.264525 63.160306 13.116310 -1.615918 1.173075 73.449458 38.481750 -9.357199 1.993451 -0.235985 -16.134128 4.282597 5.787539 -14.486675 -4.070419 -2.545385 -42.777897 -0.214896 -40.292661 -5.865330 -27.379147 -6.349428 3.283423 0.793392 -28.404176 -12.892460 0.900873 3.673093 -0.263765 -1.419938 -0.935196 -5.677433 -6.876953 13.043727 3.068759 -12.274995 -3.503117 -4.149408 -9.151721 -15.803904 -8.119169 7.927154 -0.501954 5.984965 -0.914211 -2.164519 -3.346691 0.062715
0.079419 0.333790 0.401157 -3.602946 -0.788819 0.536385 0.012112 -7.466594 -2.995350 0.882905 0.621874 0.573736 3.065666 -0.349579 -0.733834 4.209925 0.277160 0.699291 8.930479 1.029841 9.122133 1.656724 8.109429 1.976391 -0.185270 0.095948 2.490034 3.852832 0.064831 -0.590264 0.196263 0.995548 0.099803 0.615243 1.849597 -3.787568 -4.386088 3.141148 -0.489666 0.782459 1.035008 5.618341 1.783487 0.775613 0.792638 -1.322693 0.388646 1.264568 1.108776 0.053353
-0.373635 -0.828343 -0.123379 6.032898 0.502818 0.839385 0.815097 5.703830 -0.035378 0.544287 0.559838 0.037728 -0.824337 -0.844073 -0.432143 5.785735 -0.882912 1.061924 1.367560 0.392690 6.950256 2.120034 14.193428 2.347461 1.098542 -0.096747 -2.898832 2.473440 0.935328 0.044805 -0.266726 0.791023 0.527098 -0.082306 -0.137201 -2.368942 -9.871112 4.888945 -3.827161 -0.069567 -1.910244 7.906309 -1.459410 4.845622 0.217518 -1.159854 -0.057187 1.079907 2.048360 0.145155
0.285213 0.182146 -0.136485 -1.881472 2.884620 0.125970 0.132484 2.591537 0.162344 0.578577 -0.276633 0.298927 4.095043 0.143674 -0.939520 2.233834 0.475643 0.192109 -5.289706 0.263683 -6.273451 1.390428 -4.066348 0.330727 -1.135545 -0.189328 1.253970 -0.276092 0.073474 -0.307289 0.103655 0.675667 -0.099660 0.086152 1.714601 -1.537568 3.343069 1.405012 0.858526 0.460419 0.861215 1.780133 2.668628 -1.909092 -0.024542 -1.523244 0.764061 -0.007381 0.845675 0.064256
-0.440780 -0.385503 0.646134 8.318052 -2.399119 0.723910 0.805494 3.818384 -0.972090 0.872635 0.225875 0.759139 -4.607675 -1.301244 0.635776 3.242561 -0.984069 0.791596 8.358090 0.283023 11.252880 1.310789 17.429039 2.349189 2.507414 0.423304 -1.844327 2.044890 0.830164 0.963518 -0.427814 0.577674 -0.214065 -0.623810 -1.579053 -0.085078 -12.607585 3.614394 -5.029435 -0.217998 -1.413565 6.567838 -3.729736 7.244513 0.967532 0.538631 -0.013692 0.262721 2.111217 -0.406824
